<?xml version="1.0"?>
<opencv_storage>
<cascade>
  <stageType>BOOST</stageType>
  <featureType>HAAR</featureType>
  <height>48</height>
  <width>48</width>
  <stageParams>
    <boostType>GAB</boostType>
    <minHitRate>9.9500000476837158e-01</minHitRate>
    <maxFalseAlarm>5.0000000000000000e-01</maxFalseAlarm>
    <weightTrimRate>9.4999999999999996e-01</weightTrimRate>
    <maxDepth>1</maxDepth>
    <maxWeakCount>100</maxWeakCount></stageParams>
  <featureParams>
    <maxCatCount>0</maxCatCount>
    <featSize>1</featSize>
    <mode>BASIC</mode></featureParams>
  <stageNum>10</stageNum>
  <stages>
    <!-- stage 0 -->
    <_>
      <maxWeakCount>4</maxWeakCount>
      <stageThreshold>-2.5798621773719788e-01</stageThreshold>
      <weakClassifiers>
        <_>
          <internalNodes>
            0 -1 116 1.2958035804331303e-03</internalNodes>
          <leafValues>
            -3.1254532933235168e-01 8.3050847053527832e-01</leafValues></_>
        <_>
          <internalNodes>
            0 -1 58 2.6202871231362224e-04</internalNodes>
          <leafValues>
            -3.3613264560699463e-01 8.0295920372009277e-01</leafValues></_>
        <_>
          <internalNodes>
            0 -1 98 -5.0332339014858007e-04</internalNodes>
          <leafValues>
            8.4859335422515869e-01 -3.2097393274307251e-01</leafValues></_>
        <_>
          <internalNodes>
            0 -1 29 -4.2648864910006523e-03</internalNodes>
          <leafValues>
            7.1166568994522095e-01 -3.5983991622924805e-01</leafValues></_></weakClassifiers></_>
    <!-- stage 1 -->
    <_>
      <maxWeakCount>7</maxWeakCount>
      <stageThreshold>-1.1727578639984131e+00</stageThreshold>
      <weakClassifiers>
        <_>
          <internalNodes>
            0 -1 132 -6.1611668206751347e-04</internalNodes>
          <leafValues>
            5.5665719509124756e-01 -2.6286765933036804e-01</leafValues></_>
        <_>
          <internalNodes>
            0 -1 52 -1.2045050971210003e-03</internalNodes>
          <leafValues>
            6.1279022693634033e-01 -2.6847717165946960e-01</leafValues></_>
        <_>
          <internalNodes>
            0 -1 23 -4.6496610157191753e-03</internalNodes>
          <leafValues>
            5.7914251089096069e-01 -2.7936717867851257e-01</leafValues></_>
        <_>
          <internalNodes>
            0 -1 74 -1.6741597210057080e-04</internalNodes>
          <leafValues>
            3.9073243737220764e-01 -4.4463574886322021e-01</leafValues></_>
        <_>
          <internalNodes>
            0 -1 84 -9.9334493279457092e-04</internalNodes>
          <leafValues>
            6.8820542097091675e-01 -2.0959925651550293e-01</leafValues></_>
        <_>
          <internalNodes>
            0 -1 80 -3.0562488827854395e-03</internalNodes>
          <leafValues>
            6.0515648126602173e-01 -2.3266986012458801e-01</leafValues></_>
        <_>
          <internalNodes>
            0 -1 104 6.8717973772436380e-04</internalNodes>
          <leafValues>
            -3.5640841722488403e-01 4.9114307761192322e-01</leafValues></_></weakClassifiers></_>
    <!-- stage 2 -->
    <_>
      <maxWeakCount>11</maxWeakCount>
      <stageThreshold>-9.4502145051956177e-01</stageThreshold>
      <weakClassifiers>
        <_>
          <internalNodes>
            0 -1 32 -3.9076600223779678e-03</internalNodes>
          <leafValues>
            4.8424437642097473e-01 -2.6772487163543701e-01</leafValues></_>
        <_>
          <internalNodes>
            0 -1 134 -5.0275800749659538e-03</internalNodes>
          <leafValues>
            4.7966161370277405e-01 -2.5448939204216003e-01</leafValues></_>
        <_>
          <internalNodes>
            0 -1 56 4.4765761122107506e-03</internalNodes>
          <leafValues>
            -1.5799266099929810e-01 7.8753900527954102e-01</leafValues></_>
        <_>
          <internalNodes>
            0 -1 113 5.2469095680862665e-04</internalNodes>
          <leafValues>
            1.9493256509304047e-01 -8.8767731189727783e-01</leafValues></_>
        <_>
          <internalNodes>
            0 -1 125 -1.6098297201097012e-03</internalNodes>
          <leafValues>
            4.2099630832672119e-01 -2.9708778858184814e-01</leafValues></_>
        <_>
          <internalNodes>
            0 -1 103 7.3569221422076225e-04</internalNodes>
          <leafValues>
            -2.7142196893692017e-01 4.2405176162719727e-01</leafValues></_>
        <_>
          <internalNodes>
            0 -1 83 -3.0893506482243538e-03</internalNodes>
          <leafValues>
            5.3116405010223389e-01 -2.3498302698135376e-01</leafValues></_>
        <_>
          <internalNodes>
            0 -1 8 -1.0614612698554993e-01</internalNodes>
          <leafValues>
            6.1611044406890869e-01 -1.6490207612514496e-01</leafValues></_>
        <_>
          <internalNodes>
            0 -1 1 5.1930967718362808e-02</internalNodes>
          <leafValues>
            -1.5993484854698181e-01 7.9248350858688354e-01</leafValues></_>
        <_>
          <internalNodes>
            0 -1 90 2.5386855122633278e-04</internalNodes>
          <leafValues>
            1.5854243934154510e-01 -9.1940921545028687e-01</leafValues></_>
        <_>
          <internalNodes>
            0 -1 45 -6.4296857453882694e-03</internalNodes>
          <leafValues>
            3.7492251396179199e-01 -2.7097234129905701e-01</leafValues></_></weakClassifiers></_>
    <!-- stage 3 -->
    <_>
      <maxWeakCount>10</maxWeakCount>
      <stageThreshold>-9.6372729539871216e-01</stageThreshold>
      <weakClassifiers>
        <_>
          <internalNodes>
            0 -1 64 -1.5546068316325545e-03</internalNodes>
          <leafValues>
            5.7233846187591553e-01 -9.2077091336250305e-02</leafValues></_>
        <_>
          <internalNodes>
            0 -1 2 8.0340668559074402e-02</internalNodes>
          <leafValues>
            -1.2785722315311432e-01 7.1283978223800659e-01</leafValues></_>
        <_>
          <internalNodes>
            0 -1 66 9.4532091170549393e-03</internalNodes>
          <leafValues>
            -2.4509973824024200e-01 5.0646770000457764e-01</leafValues></_>
        <_>
          <internalNodes>
            0 -1 9 -1.8111929297447205e-02</internalNodes>
          <leafValues>
            5.3595185279846191e-01 -2.2057408094406128e-01</leafValues></_>
        <_>
          <internalNodes>
            0 -1 39 -5.6408378295600414e-03</internalNodes>
          <leafValues>
            6.8215972185134888e-01 -1.3457390666007996e-01</leafValues></_>
        <_>
          <internalNodes>
            0 -1 111 3.4082042984664440e-03</internalNodes>
          <leafValues>
            -3.0454757809638977e-01 3.2405146956443787e-01</leafValues></_>
        <_>
          <internalNodes>
            0 -1 19 4.2660810053348541e-02</internalNodes>
          <leafValues>
            -2.2380223870277405e-01 4.6474453806877136e-01</leafValues></_>
        <_>
          <internalNodes>
            0 -1 129 4.0906388312578201e-04</internalNodes>
          <leafValues>
            1.3857413828372955e-01 -7.8622329235076904e-01</leafValues></_>
        <_>
          <internalNodes>
            0 -1 93 -5.3427359089255333e-03</internalNodes>
          <leafValues>
            4.8817378282546997e-01 -2.0519769191741943e-01</leafValues></_>
        <_>
          <internalNodes>
            0 -1 102 -2.0800012862309813e-04</internalNodes>
          <leafValues>
            2.3919798433780670e-01 -3.8926890492439270e-01</leafValues></_></weakClassifiers></_>
    <!-- stage 4 -->
    <_>
      <maxWeakCount>15</maxWeakCount>
      <stageThreshold>-7.1972709894180298e-01</stageThreshold>
      <weakClassifiers>
        <_>
          <internalNodes>
            0 -1 88 -5.5891168303787708e-03</internalNodes>
          <leafValues>
            -7.4672490358352661e-01 2.9546454548835754e-01</leafValues></_>
        <_>
          <internalNodes>
            0 -1 24 -5.8593209832906723e-03</internalNodes>
          <leafValues>
            5.1345658302307129e-01 -1.5602687001228333e-01</leafValues></_>
        <_>
          <internalNodes>
            0 -1 137 -4.1910511208698153e-04</internalNodes>
          <leafValues>
            3.1331202387809753e-01 -2.7515727281570435e-01</leafValues></_>
        <_>
          <internalNodes>
            0 -1 124 -3.3598425798118114e-03</internalNodes>
          <leafValues>
            4.3177127838134766e-01 -2.2115980088710785e-01</leafValues></_>
        <_>
          <internalNodes>
            0 -1 84 -1.6656162915751338e-03</internalNodes>
          <leafValues>
            5.2185571193695068e-01 -1.8504440784454346e-01</leafValues></_>
        <_>
          <internalNodes>
            0 -1 46 -4.3435535189928487e-05</internalNodes>
          <leafValues>
            -3.8911548256874084e-01 2.3879958689212799e-01</leafValues></_>
        <_>
          <internalNodes>
            0 -1 119 3.0187184165697545e-06</internalNodes>
          <leafValues>
            -3.8920280337333679e-01 2.3616531491279602e-01</leafValues></_>
        <_>
          <internalNodes>
            0 -1 36 4.1561713442206383e-03</internalNodes>
          <leafValues>
            1.5389361977577209e-01 -7.0938330888748169e-01</leafValues></_>
        <_>
          <internalNodes>
            0 -1 48 3.1947526149451733e-03</internalNodes>
          <leafValues>
            -2.6935547590255737e-01 3.2247507572174072e-01</leafValues></_>
        <_>
          <internalNodes>
            0 -1 27 -1.4183233724907041e-04</internalNodes>
          <leafValues>
            3.6889922618865967e-01 -2.7094781398773193e-01</leafValues></_>
        <_>
          <internalNodes>
            0 -1 72 1.5620302292518318e-04</internalNodes>
          <leafValues>
            1.5474326908588409e-01 -4.7936519980430603e-01</leafValues></_>
        <_>
          <internalNodes>
            0 -1 49 2.1209954284131527e-03</internalNodes>
          <leafValues>
            -2.1004311740398407e-01 4.7530838847160339e-01</leafValues></_>
        <_>
          <internalNodes>
            0 -1 96 8.6875043052714318e-05</internalNodes>
          <leafValues>
            -2.5484177470207214e-01 3.6787393689155579e-01</leafValues></_>
        <_>
          <internalNodes>
            0 -1 6 7.7296517789363861e-02</internalNodes>
          <leafValues>
            -1.5965797007083893e-01 5.8273869752883911e-01</leafValues></_>
        <_>
          <internalNodes>
            0 -1 126 3.0909930046618683e-06</internalNodes>
          <leafValues>
            -4.6473193168640137e-01 2.4217794835567474e-01</leafValues></_></weakClassifiers></_>
    <!-- stage 5 -->
    <_>
      <maxWeakCount>18</maxWeakCount>
      <stageThreshold>-7.4017071723937988e-01</stageThreshold>
      <weakClassifiers>
        <_>
          <internalNodes>
            0 -1 78 -5.2483957260847092e-03</internalNodes>
          <leafValues>
            6.2200284004211426e-01 3.2942488789558411e-02</leafValues></_>
        <_>
          <internalNodes>
            0 -1 10 2.1104899048805237e-01</internalNodes>
          <leafValues>
            -9.9524617195129395e-02 6.9491541385650635e-01</leafValues></_>
        <_>
          <internalNodes>
            0 -1 28 -1.4037039130926132e-02</internalNodes>
          <leafValues>
            4.8036643862724304e-01 -1.5931387245655060e-01</leafValues></_>
        <_>
          <internalNodes>
            0 -1 71 -1.2540543684735894e-04</internalNodes>
          <leafValues>
            2.3646451532840729e-01 -3.1809097528457642e-01</leafValues></_>
        <_>
          <internalNodes>
            0 -1 139 1.0330704972147942e-02</internalNodes>
          <leafValues>
            -1.6197326779365540e-01 4.7587314248085022e-01</leafValues></_>
        <_>
          <internalNodes>
            0 -1 107 1.4190265210345387e-03</internalNodes>
          <leafValues>
            -2.1274980902671814e-01 3.8104844093322754e-01</leafValues></_>
        <_>
          <internalNodes>
            0 -1 42 6.9771101698279381e-03</internalNodes>
          <leafValues>
            -1.6617801785469055e-01 5.7251691818237305e-01</leafValues></_>
        <_>
          <internalNodes>
            0 -1 70 2.0695861894637346e-04</internalNodes>
          <leafValues>
            -2.7970358729362488e-01 2.8912302851676941e-01</leafValues></_>
        <_>
          <internalNodes>
            0 -1 106 -5.2315539505798370e-05</internalNodes>
          <leafValues>
            -3.2743975520133972e-01 2.7683830261230469e-01</leafValues></_>
        <_>
          <internalNodes>
            0 -1 108 -1.5233280137181282e-03</internalNodes>
          <leafValues>
            4.4943976402282715e-01 -2.3960210382938385e-01</leafValues></_>
        <_>
          <internalNodes>
            0 -1 110 -1.1556844692677259e-03</internalNodes>
          <leafValues>
            -7.0645016431808472e-01 1.5770760178565979e-01</leafValues></_>
        <_>
          <internalNodes>
            0 -1 26 2.0295421127229929e-03</internalNodes>
          <leafValues>
            -2.2614498436450958e-01 3.9404591917991638e-01</leafValues></_>
        <_>
          <internalNodes>
            0 -1 38 1.1194271035492420e-02</internalNodes>
          <leafValues>
            -2.0404396951198578e-01 4.1780239343643188e-01</leafValues></_>
        <_>
          <internalNodes>
            0 -1 4 3.2401032513007522e-05</internalNodes>
          <leafValues>
            1.8877770006656647e-01 -4.4290703535079956e-01</leafValues></_>
        <_>
          <internalNodes>
            0 -1 4 -4.3121272028656676e-05</internalNodes>
          <leafValues>
            -4.8935750126838684e-01 1.5187309682369232e-01</leafValues></_>
        <_>
          <internalNodes>
            0 -1 76 3.2478877983521670e-05</internalNodes>
          <leafValues>
            1.3516277074813843e-01 -5.3368633985519409e-01</leafValues></_>
        <_>
          <internalNodes>
            0 -1 15 -3.2452915329486132e-03</internalNodes>
          <leafValues>
            5.4250878095626831e-01 -1.2457145005464554e-01</leafValues></_>
        <_>
          <internalNodes>
            0 -1 55 -2.1745730191469193e-03</internalNodes>
          <leafValues>
            -2.9685488343238831e-01 2.5258380174636841e-01</leafValues></_></weakClassifiers></_>
    <!-- stage 6 -->
    <_>
      <maxWeakCount>18</maxWeakCount>
      <stageThreshold>-8.2868009805679321e-01</stageThreshold>
      <weakClassifiers>
        <_>
          <internalNodes>
            0 -1 51 -1.7501408234238625e-02</internalNodes>
          <leafValues>
            5.6580430269241333e-01 -1.8621974159032106e-03</leafValues></_>
        <_>
          <internalNodes>
            0 -1 50 1.7581661231815815e-03</internalNodes>
          <leafValues>
            -2.3422695696353912e-01 3.1588384509086609e-01</leafValues></_>
        <_>
          <internalNodes>
            0 -1 77 -7.8746033832430840e-03</internalNodes>
          <leafValues>
            4.6889653801918030e-01 -1.5926179289817810e-01</leafValues></_>
        <_>
          <internalNodes>
            0 -1 120 -2.7191426852368750e-06</internalNodes>
          <leafValues>
            2.5845417380332947e-01 -3.4937325119972229e-01</leafValues></_>
        <_>
          <internalNodes>
            0 -1 33 1.7515440704301000e-03</internalNodes>
          <leafValues>
            -3.3679622411727905e-01 2.6507055759429932e-01</leafValues></_>
        <_>
          <internalNodes>
            0 -1 35 -3.9382409304380417e-03</internalNodes>
          <leafValues>
            5.7341706752777100e-01 -1.4821359515190125e-01</leafValues></_>
        <_>
          <internalNodes>
            0 -1 21 -6.9833710789680481e-02</internalNodes>
          <leafValues>
            7.4294298887252808e-01 -7.1409992873668671e-02</leafValues></_>
        <_>
          <internalNodes>
            0 -1 112 6.2378980219364166e-03</internalNodes>
          <leafValues>
            1.3873289525508881e-01 -5.8888453245162964e-01</leafValues></_>
        <_>
          <internalNodes>
            0 -1 65 1.8369683995842934e-02</internalNodes>
          <leafValues>
            -2.1893976628780365e-01 4.4911023974418640e-01</leafValues></_>
        <_>
          <internalNodes>
            0 -1 97 -2.9787574894726276e-03</internalNodes>
          <leafValues>
            3.2945796847343445e-01 -2.5326693058013916e-01</leafValues></_>
        <_>
          <internalNodes>
            0 -1 13 -7.1986910188570619e-04</internalNodes>
          <leafValues>
            2.9793411493301392e-01 -2.5239631533622742e-01</leafValues></_>
        <_>
          <internalNodes>
            0 -1 22 -6.8276666570454836e-04</internalNodes>
          <leafValues>
            3.5893762111663818e-01 -2.0653893053531647e-01</leafValues></_>
        <_>
          <internalNodes>
            0 -1 43 -7.1720418054610491e-04</internalNodes>
          <leafValues>
            -6.9042211771011353e-01 1.1989056318998337e-01</leafValues></_>
        <_>
          <internalNodes>
            0 -1 130 2.9814965091645718e-04</internalNodes>
          <leafValues>
            -3.3581998944282532e-01 2.1099321544170380e-01</leafValues></_>
        <_>
          <internalNodes>
            0 -1 17 7.3588127270340919e-04</internalNodes>
          <leafValues>
            -2.5073567032814026e-01 2.9046687483787537e-01</leafValues></_>
        <_>
          <internalNodes>
            0 -1 63 5.5601791245862842e-05</internalNodes>
          <leafValues>
            -3.0566707253456116e-01 2.6728308200836182e-01</leafValues></_>
        <_>
          <internalNodes>
            0 -1 121 -2.5851448299363256e-05</internalNodes>
          <leafValues>
            -4.0987879037857056e-01 1.9934548437595367e-01</leafValues></_>
        <_>
          <internalNodes>
            0 -1 128 7.5154937803745270e-03</internalNodes>
          <leafValues>
            -1.8339908123016357e-01 4.2679753899574280e-01</leafValues></_></weakClassifiers></_>
    <!-- stage 7 -->
    <_>
      <maxWeakCount>23</maxWeakCount>
      <stageThreshold>-7.9211217164993286e-01</stageThreshold>
      <weakClassifiers>
        <_>
          <internalNodes>
            0 -1 115 1.9958309712819755e-04</internalNodes>
          <leafValues>
            3.1240946054458618e-01 -3.4265735745429993e-01</leafValues></_>
        <_>
          <internalNodes>
            0 -1 133 -1.3983720913529396e-02</internalNodes>
          <leafValues>
            4.0474382042884827e-01 -1.6875222325325012e-01</leafValues></_>
        <_>
          <internalNodes>
            0 -1 73 1.0254424996674061e-03</internalNodes>
          <leafValues>
            8.0773010849952698e-02 -7.9535079002380371e-01</leafValues></_>
        <_>
          <internalNodes>
            0 -1 92 -3.2320597674697638e-03</internalNodes>
          <leafValues>
            3.9529374241828918e-01 -1.7518046498298645e-01</leafValues></_>
        <_>
          <internalNodes>
            0 -1 75 -5.7656187564134598e-03</internalNodes>
          <leafValues>
            3.7640252709388733e-01 -2.0272304117679596e-01</leafValues></_>
        <_>
          <internalNodes>
            0 -1 14 3.1109997071325779e-03</internalNodes>
          <leafValues>
            -1.4672574400901794e-01 3.7240031361579895e-01</leafValues></_>
        <_>
          <internalNodes>
            0 -1 95 -4.6045728959143162e-04</internalNodes>
          <leafValues>
            1.8366008996963501e-01 -3.6404502391815186e-01</leafValues></_>
        <_>
          <internalNodes>
            0 -1 79 -7.3825102299451828e-04</internalNodes>
          <leafValues>
            2.4449042975902557e-01 -2.9995912313461304e-01</leafValues></_>
        <_>
          <internalNodes>
            0 -1 69 -1.4123570872470737e-03</internalNodes>
          <leafValues>
            -3.9285081624984741e-01 2.5292718410491943e-01</leafValues></_>
        <_>
          <internalNodes>
            0 -1 87 -2.8977019246667624e-04</internalNodes>
          <leafValues>
            -3.5704258084297180e-01 2.1410645544528961e-01</leafValues></_>
        <_>
          <internalNodes>
            0 -1 67 -2.7141319587826729e-03</internalNodes>
          <leafValues>
            4.6349477767944336e-01 -1.7998164892196655e-01</leafValues></_>
        <_>
          <internalNodes>
            0 -1 12 -6.4687506528571248e-04</internalNodes>
          <leafValues>
            -4.2604026198387146e-01 1.5024553239345551e-01</leafValues></_>
        <_>
          <internalNodes>
            0 -1 30 3.9880507392808795e-04</internalNodes>
          <leafValues>
            1.0373158007860184e-01 -5.9476888179779053e-01</leafValues></_>
        <_>
          <internalNodes>
            0 -1 20 3.3093034289777279e-03</internalNodes>
          <leafValues>
            -1.3187544047832489e-01 4.9296322464942932e-01</leafValues></_>
        <_>
          <internalNodes>
            0 -1 85 -8.4846038371324539e-03</internalNodes>
          <leafValues>
            4.4302576780319214e-01 -1.3394545018672943e-01</leafValues></_>
        <_>
          <internalNodes>
            0 -1 54 -4.8342655645683408e-04</internalNodes>
          <leafValues>
            -3.3303645253181458e-01 2.3386749625205994e-01</leafValues></_>
        <_>
          <internalNodes>
            0 -1 7 -4.4326249510049820e-02</internalNodes>
          <leafValues>
            4.2261895537376404e-01 -1.7569315433502197e-01</leafValues></_>
        <_>
          <internalNodes>
            0 -1 61 3.1260638497769833e-03</internalNodes>
          <leafValues>
            1.3349069654941559e-01 -5.5837708711624146e-01</leafValues></_>
        <_>
          <internalNodes>
            0 -1 122 3.1901577131066006e-06</internalNodes>
          <leafValues>
            -3.1745460629463196e-01 1.9503296911716461e-01</leafValues></_>
        <_>
          <internalNodes>
            0 -1 18 2.4780694395303726e-02</internalNodes>
          <leafValues>
            8.3178497850894928e-02 -7.8262788057327271e-01</leafValues></_>
        <_>
          <internalNodes>
            0 -1 0 -5.0423340871930122e-03</internalNodes>
          <leafValues>
            -5.2764242887496948e-01 1.0564463585615158e-01</leafValues></_>
        <_>
          <internalNodes>
            0 -1 117 1.4112649485468864e-02</internalNodes>
          <leafValues>
            -1.6540195047855377e-01 3.6320176720619202e-01</leafValues></_>
        <_>
          <internalNodes>
            0 -1 27 -1.6771216178312898e-04</internalNodes>
          <leafValues>
            2.5745660066604614e-01 -2.3960664868354797e-01</leafValues></_></weakClassifiers></_>
    <!-- stage 8 -->
    <_>
      <maxWeakCount>20</maxWeakCount>
      <stageThreshold>-8.8962787389755249e-01</stageThreshold>
      <weakClassifiers>
        <_>
          <internalNodes>
            0 -1 101 9.6039485651999712e-04</internalNodes>
          <leafValues>
            -6.2415197491645813e-02 5.7699805498123169e-01</leafValues></_>
        <_>
          <internalNodes>
            0 -1 99 -9.6934451721608639e-04</internalNodes>
          <leafValues>
            3.8512542843818665e-01 -1.7271721363067627e-01</leafValues></_>
        <_>
          <internalNodes>
            0 -1 41 -3.2032351940870285e-02</internalNodes>
          <leafValues>
            8.4525161981582642e-01 -7.5461678206920624e-02</leafValues></_>
        <_>
          <internalNodes>
            0 -1 105 -2.5803680182434618e-04</internalNodes>
          <leafValues>
            -5.9709751605987549e-01 1.3751918077468872e-01</leafValues></_>
        <_>
          <internalNodes>
            0 -1 89 -1.2988934759050608e-03</internalNodes>
          <leafValues>
            7.2502648830413818e-01 -5.2432626485824585e-02</leafValues></_>
        <_>
          <internalNodes>
            0 -1 40 -6.9546587765216827e-03</internalNodes>
          <leafValues>
            2.2803162038326263e-01 -3.6355802416801453e-01</leafValues></_>
        <_>
          <internalNodes>
            0 -1 3 6.1909232288599014e-02</internalNodes>
          <leafValues>
            -8.1541299819946289e-02 7.0119184255599976e-01</leafValues></_>
        <_>
          <internalNodes>
            0 -1 11 -2.1489777136594057e-03</internalNodes>
          <leafValues>
            2.9500570893287659e-01 -2.9578608274459839e-01</leafValues></_>
        <_>
          <internalNodes>
            0 -1 138 -9.2528369277715683e-03</internalNodes>
          <leafValues>
            3.9790004491806030e-01 -1.3832512497901917e-01</leafValues></_>
        <_>
          <internalNodes>
            0 -1 127 5.0021731294691563e-04</internalNodes>
          <leafValues>
            9.3789666891098022e-02 -7.2131443023681641e-01</leafValues></_>
        <_>
          <internalNodes>
            0 -1 81 3.2290967646986246e-04</internalNodes>
          <leafValues>
            -3.5943207144737244e-01 1.7129528522491455e-01</leafValues></_>
        <_>
          <internalNodes>
            0 -1 47 4.1697775013744831e-03</internalNodes>
          <leafValues>
            1.1676195263862610e-01 -6.1802536249160767e-01</leafValues></_>
        <_>
          <internalNodes>
            0 -1 141 6.5486659877933562e-05</internalNodes>
          <leafValues>
            1.2223467230796814e-01 -4.9722415208816528e-01</leafValues></_>
        <_>
          <internalNodes>
            0 -1 140 -3.2003305386751890e-04</internalNodes>
          <leafValues>
            -5.3699392080307007e-01 1.0287159681320190e-01</leafValues></_>
        <_>
          <internalNodes>
            0 -1 135 -6.6425841396267060e-06</internalNodes>
          <leafValues>
            2.2554898262023926e-01 -2.9153972864151001e-01</leafValues></_>
        <_>
          <internalNodes>
            0 -1 131 4.1655087843537331e-03</internalNodes>
          <leafValues>
            -1.4139191806316376e-01 4.7323557734489441e-01</leafValues></_>
        <_>
          <internalNodes>
            0 -1 94 9.0480111539363861e-03</internalNodes>
          <leafValues>
            1.2109748274087906e-01 -6.5143024921417236e-01</leafValues></_>
        <_>
          <internalNodes>
            0 -1 100 9.3677348922938108e-04</internalNodes>
          <leafValues>
            -2.3214915394783020e-01 3.7341746687889099e-01</leafValues></_>
        <_>
          <internalNodes>
            0 -1 114 -5.3218402899801731e-04</internalNodes>
          <leafValues>
            3.2006800174713135e-01 -2.3980563879013062e-01</leafValues></_>
        <_>
          <internalNodes>
            0 -1 91 -1.1280542821623385e-04</internalNodes>
          <leafValues>
            -3.5759764909744263e-01 2.3224076628684998e-01</leafValues></_></weakClassifiers></_>
    <!-- stage 9 -->
    <_>
      <maxWeakCount>19</maxWeakCount>
      <stageThreshold>-7.4568927288055420e-01</stageThreshold>
      <weakClassifiers>
        <_>
          <internalNodes>
            0 -1 5 3.2955527305603027e-02</internalNodes>
          <leafValues>
            5.7364340871572495e-02 6.8849557638168335e-01</leafValues></_>
        <_>
          <internalNodes>
            0 -1 53 -8.1162818241864443e-04</internalNodes>
          <leafValues>
            3.4293681383132935e-01 -1.9851018488407135e-01</leafValues></_>
        <_>
          <internalNodes>
            0 -1 25 1.2745296116918325e-03</internalNodes>
          <leafValues>
            -2.1215678751468658e-01 3.6077767610549927e-01</leafValues></_>
        <_>
          <internalNodes>
            0 -1 31 -5.7173846289515495e-04</internalNodes>
          <leafValues>
            2.4236783385276794e-01 -2.4035485088825226e-01</leafValues></_>
        <_>
          <internalNodes>
            0 -1 82 -1.2891118240077049e-04</internalNodes>
          <leafValues>
            3.3321234583854675e-01 -2.1298405528068542e-01</leafValues></_>
        <_>
          <internalNodes>
            0 -1 68 -9.2269864398986101e-04</internalNodes>
          <leafValues>
            -3.5937073826789856e-01 2.4019481241703033e-01</leafValues></_>
        <_>
          <internalNodes>
            0 -1 136 -4.5602733734995127e-04</internalNodes>
          <leafValues>
            -6.9442468881607056e-01 1.1187589168548584e-01</leafValues></_>
        <_>
          <internalNodes>
            0 -1 37 7.0778029039502144e-03</internalNodes>
          <leafValues>
            -1.7915044724941254e-01 4.0985214710235596e-01</leafValues></_>
        <_>
          <internalNodes>
            0 -1 118 -3.0183946364559233e-04</internalNodes>
          <leafValues>
            -3.9876770973205566e-01 1.7624558508396149e-01</leafValues></_>
        <_>
          <internalNodes>
            0 -1 16 -4.8740443889982998e-04</internalNodes>
          <leafValues>
            4.5267957448959351e-01 -1.6531461477279663e-01</leafValues></_>
        <_>
          <internalNodes>
            0 -1 57 6.8960955832153559e-04</internalNodes>
          <leafValues>
            -2.0732003450393677e-01 2.8996440768241882e-01</leafValues></_>
        <_>
          <internalNodes>
            0 -1 34 -5.0054513849318027e-04</internalNodes>
          <leafValues>
            -5.4210883378982544e-01 1.2124820798635483e-01</leafValues></_>
        <_>
          <internalNodes>
            0 -1 60 1.9306418835185468e-04</internalNodes>
          <leafValues>
            -2.1790921688079834e-01 3.0094373226165771e-01</leafValues></_>
        <_>
          <internalNodes>
            0 -1 59 2.8991169529035687e-04</internalNodes>
          <leafValues>
            -1.6822041571140289e-01 4.1508668661117554e-01</leafValues></_>
        <_>
          <internalNodes>
            0 -1 44 -3.5631234641186893e-04</internalNodes>
          <leafValues>
            -5.7976967096328735e-01 1.0564969480037689e-01</leafValues></_>
        <_>
          <internalNodes>
            0 -1 123 -2.7130724629387259e-04</internalNodes>
          <leafValues>
            2.7464115619659424e-01 -2.4090552330017090e-01</leafValues></_>
        <_>
          <internalNodes>
            0 -1 109 8.9631751179695129e-03</internalNodes>
          <leafValues>
            -7.8489027917385101e-02 7.0842558145523071e-01</leafValues></_>
        <_>
          <internalNodes>
            0 -1 62 -9.1813541948795319e-03</internalNodes>
          <leafValues>
            -7.0880746841430664e-01 1.0381632298231125e-01</leafValues></_>
        <_>
          <internalNodes>
            0 -1 86 6.2885868828743696e-04</internalNodes>
          <leafValues>
            2.5989156961441040e-01 -2.7300310134887695e-01</leafValues></_></weakClassifiers></_></stages>
  <features>
    <_>
      <rects>
        <_>
          0 0 8 14 -1.</_>
        <_>
          0 0 4 7 2.</_>
        <_>
          4 7 4 7 2.</_></rects>
      <tilted>0</tilted></_>
    <_>
      <rects>
        <_>
          0 20 24 10 -1.</_>
        <_>
          12 20 12 10 2.</_></rects>
      <tilted>0</tilted></_>
    <_>
      <rects>
        <_>
          0 27 48 8 -1.</_>
        <_>
          16 27 16 8 3.</_></rects>
      <tilted>0</tilted></_>
    <_>
      <rects>
        <_>
          1 23 30 9 -1.</_>
        <_>
          16 23 15 9 2.</_></rects>
      <tilted>0</tilted></_>
    <_>
      <rects>
        <_>
          2 5 2 1 -1.</_>
        <_>
          3 5 1 1 2.</_></rects>
      <tilted>0</tilted></_>
    <_>
      <rects>
        <_>
          2 26 20 11 -1.</_>
        <_>
          12 26 10 11 2.</_></rects>
      <tilted>0</tilted></_>
    <_>
      <rects>
        <_>
          3 19 30 26 -1.</_>
        <_>
          3 19 15 13 2.</_>
        <_>
          18 32 15 13 2.</_></rects>
      <tilted>0</tilted></_>
    <_>
      <rects>
        <_>
          4 8 26 22 -1.</_>
        <_>
          4 8 13 11 2.</_>
        <_>
          17 19 13 11 2.</_></rects>
      <tilted>0</tilted></_>
    <_>
      <rects>
        <_>
          5 13 30 27 -1.</_>
        <_>
          15 13 10 27 3.</_></rects>
      <tilted>0</tilted></_>
    <_>
      <rects>
        <_>
          5 18 14 11 -1.</_>
        <_>
          12 18 7 11 2.</_></rects>
      <tilted>0</tilted></_>
    <_>
      <rects>
        <_>
          6 10 42 27 -1.</_>
        <_>
          20 10 14 27 3.</_></rects>
      <tilted>0</tilted></_>
    <_>
      <rects>
        <_>
          8 30 12 6 -1.</_>
        <_>
          14 30 6 6 2.</_></rects>
      <tilted>0</tilted></_>
    <_>
      <rects>
        <_>
          9 3 6 3 -1.</_>
        <_>
          11 3 2 3 3.</_></rects>
      <tilted>0</tilted></_>
    <_>
      <rects>
        <_>
          10 21 6 5 -1.</_>
        <_>
          12 21 2 5 3.</_></rects>
      <tilted>0</tilted></_>
    <_>
      <rects>
        <_>
          11 16 9 4 -1.</_>
        <_>
          14 16 3 4 3.</_></rects>
      <tilted>0</tilted></_>
    <_>
      <rects>
        <_>
          11 18 4 12 -1.</_>
        <_>
          11 18 2 6 2.</_>
        <_>
          13 24 2 6 2.</_></rects>
      <tilted>0</tilted></_>
    <_>
      <rects>
        <_>
          11 22 2 4 -1.</_>
        <_>
          12 22 1 4 2.</_></rects>
      <tilted>0</tilted></_>
    <_>
      <rects>
        <_>
          12 20 15 3 -1.</_>
        <_>
          17 20 5 3 3.</_></rects>
      <tilted>0</tilted></_>
    <_>
      <rects>
        <_>
          12 20 14 15 -1.</_>
        <_>
          12 25 14 5 3.</_></rects>
      <tilted>0</tilted></_>
    <_>
      <rects>
        <_>
          13 15 24 30 -1.</_>
        <_>
          13 15 12 15 2.</_>
        <_>
          25 30 12 15 2.</_></rects>
      <tilted>0</tilted></_>
    <_>
      <rects>
        <_>
          13 18 4 12 -1.</_>
        <_>
          13 18 2 6 2.</_>
        <_>
          15 24 2 6 2.</_></rects>
      <tilted>0</tilted></_>
    <_>
      <rects>
        <_>
          13 18 30 20 -1.</_>
        <_>
          13 18 15 10 2.</_>
        <_>
          28 28 15 10 2.</_></rects>
      <tilted>0</tilted></_>
    <_>
      <rects>
        <_>
          13 22 4 4 -1.</_>
        <_>
          15 22 2 4 2.</_></rects>
      <tilted>0</tilted></_>
    <_>
      <rects>
        <_>
          14 13 14 8 -1.</_>
        <_>
          14 13 7 4 2.</_>
        <_>
          21 17 7 4 2.</_></rects>
      <tilted>0</tilted></_>
    <_>
      <rects>
        <_>
          14 14 10 8 -1.</_>
        <_>
          14 14 5 4 2.</_>
        <_>
          19 18 5 4 2.</_></rects>
      <tilted>0</tilted></_>
    <_>
      <rects>
        <_>
          14 16 4 10 -1.</_>
        <_>
          14 16 2 5 2.</_>
        <_>
          16 21 2 5 2.</_></rects>
      <tilted>0</tilted></_>
    <_>
      <rects>
        <_>
          14 16 12 2 -1.</_>
        <_>
          18 16 4 2 3.</_></rects>
      <tilted>0</tilted></_>
    <_>
      <rects>
        <_>
          14 26 4 1 -1.</_>
        <_>
          16 26 2 1 2.</_></rects>
      <tilted>0</tilted></_>
    <_>
      <rects>
        <_>
          15 13 12 10 -1.</_>
        <_>
          19 13 4 10 3.</_></rects>
      <tilted>0</tilted></_>
    <_>
      <rects>
        <_>
          15 16 12 7 -1.</_>
        <_>
          19 16 4 7 3.</_></rects>
      <tilted>0</tilted></_>
    <_>
      <rects>
        <_>
          15 23 3 3 -1.</_>
        <_>
          16 23 1 3 3.</_></rects>
      <tilted>0</tilted></_>
    <_>
      <rects>
        <_>
          15 24 4 14 -1.</_>
        <_>
          17 24 2 14 2.</_></rects>
      <tilted>0</tilted></_>
    <_>
      <rects>
        <_>
          15 24 18 7 -1.</_>
        <_>
          21 24 6 7 3.</_></rects>
      <tilted>0</tilted></_>
    <_>
      <rects>
        <_>
          15 24 16 5 -1.</_>
        <_>
          23 24 8 5 2.</_></rects>
      <tilted>0</tilted></_>
    <_>
      <rects>
        <_>
          15 26 3 10 -1.</_>
        <_>
          16 26 1 10 3.</_></rects>
      <tilted>0</tilted></_>
    <_>
      <rects>
        <_>
          15 26 14 1 -1.</_>
        <_>
          22 26 7 1 2.</_></rects>
      <tilted>0</tilted></_>
    <_>
      <rects>
        <_>
          15 27 7 8 -1.</_>
        <_>
          15 31 7 4 2.</_></rects>
      <tilted>0</tilted></_>
    <_>
      <rects>
        <_>
          15 34 12 10 -1.</_>
        <_>
          15 34 6 5 2.</_>
        <_>
          21 39 6 5 2.</_></rects>
      <tilted>0</tilted></_>
    <_>
      <rects>
        <_>
          16 4 14 18 -1.</_>
        <_>
          16 4 7 9 2.</_>
        <_>
          23 13 7 9 2.</_></rects>
      <tilted>0</tilted></_>
    <_>
      <rects>
        <_>
          16 11 8 8 -1.</_>
        <_>
          16 11 4 4 2.</_>
        <_>
          20 15 4 4 2.</_></rects>
      <tilted>0</tilted></_>
    <_>
      <rects>
        <_>
          16 13 12 31 -1.</_>
        <_>
          20 13 4 31 3.</_></rects>
      <tilted>0</tilted></_>
    <_>
      <rects>
        <_>
          16 15 14 6 -1.</_>
        <_>
          23 15 7 6 2.</_></rects>
      <tilted>0</tilted></_>
    <_>
      <rects>
        <_>
          16 25 12 3 -1.</_>
        <_>
          20 25 4 3 3.</_></rects>
      <tilted>0</tilted></_>
    <_>
      <rects>
        <_>
          16 29 8 3 -1.</_>
        <_>
          16 30 8 1 3.</_></rects>
      <tilted>0</tilted></_>
    <_>
      <rects>
        <_>
          16 30 2 6 -1.</_>
        <_>
          16 30 1 3 2.</_>
        <_>
          17 33 1 3 2.</_></rects>
      <tilted>0</tilted></_>
    <_>
      <rects>
        <_>
          17 16 15 6 -1.</_>
        <_>
          17 19 15 3 2.</_></rects>
      <tilted>0</tilted></_>
    <_>
      <rects>
        <_>
          17 23 3 3 -1.</_>
        <_>
          18 23 1 3 3.</_></rects>
      <tilted>0</tilted></_>
    <_>
      <rects>
        <_>
          18 0 15 2 -1.</_>
        <_>
          23 0 5 2 3.</_></rects>
      <tilted>0</tilted></_>
    <_>
      <rects>
        <_>
          18 14 8 7 -1.</_>
        <_>
          22 14 4 7 2.</_></rects>
      <tilted>0</tilted></_>
    <_>
      <rects>
        <_>
          18 19 6 6 -1.</_>
        <_>
          18 19 3 3 2.</_>
        <_>
          21 22 3 3 2.</_></rects>
      <tilted>0</tilted></_>
    <_>
      <rects>
        <_>
          18 36 12 3 -1.</_>
        <_>
          24 36 6 3 2.</_></rects>
      <tilted>0</tilted></_>
    <_>
      <rects>
        <_>
          19 14 10 15 -1.</_>
        <_>
          19 19 10 5 3.</_></rects>
      <tilted>0</tilted></_>
    <_>
      <rects>
        <_>
          19 18 3 6 -1.</_>
        <_>
          19 20 3 2 3.</_></rects>
      <tilted>0</tilted></_>
    <_>
      <rects>
        <_>
          19 19 2 6 -1.</_>
        <_>
          19 21 2 2 3.</_></rects>
      <tilted>0</tilted></_>
    <_>
      <rects>
        <_>
          19 20 12 7 -1.</_>
        <_>
          23 20 4 7 3.</_></rects>
      <tilted>0</tilted></_>
    <_>
      <rects>
        <_>
          19 21 12 7 -1.</_>
        <_>
          23 21 4 7 3.</_></rects>
      <tilted>0</tilted></_>
    <_>
      <rects>
        <_>
          19 22 6 4 -1.</_>
        <_>
          21 22 2 4 3.</_></rects>
      <tilted>0</tilted></_>
    <_>
      <rects>
        <_>
          19 23 2 12 -1.</_>
        <_>
          19 27 2 4 3.</_></rects>
      <tilted>0</tilted></_>
    <_>
      <rects>
        <_>
          19 27 8 2 -1.</_>
        <_>
          19 27 4 1 2.</_>
        <_>
          23 28 4 1 2.</_></rects>
      <tilted>0</tilted></_>
    <_>
      <rects>
        <_>
          20 13 2 4 -1.</_>
        <_>
          20 13 1 2 2.</_>
        <_>
          21 15 1 2 2.</_></rects>
      <tilted>0</tilted></_>
    <_>
      <rects>
        <_>
          20 21 3 3 -1.</_>
        <_>
          21 21 1 3 3.</_></rects>
      <tilted>0</tilted></_>
    <_>
      <rects>
        <_>
          20 21 9 9 -1.</_>
        <_>
          23 21 3 9 3.</_></rects>
      <tilted>0</tilted></_>
    <_>
      <rects>
        <_>
          20 22 14 5 -1.</_>
        <_>
          27 22 7 5 2.</_></rects>
      <tilted>0</tilted></_>
    <_>
      <rects>
        <_>
          20 23 9 1 -1.</_>
        <_>
          23 23 3 1 3.</_></rects>
      <tilted>0</tilted></_>
    <_>
      <rects>
        <_>
          20 23 10 2 -1.</_>
        <_>
          25 23 5 2 2.</_></rects>
      <tilted>0</tilted></_>
    <_>
      <rects>
        <_>
          21 10 12 22 -1.</_>
        <_>
          21 21 12 11 2.</_></rects>
      <tilted>0</tilted></_>
    <_>
      <rects>
        <_>
          21 11 5 12 -1.</_>
        <_>
          21 15 5 4 3.</_></rects>
      <tilted>0</tilted></_>
    <_>
      <rects>
        <_>
          21 13 10 4 -1.</_>
        <_>
          21 13 5 2 2.</_>
        <_>
          26 15 5 2 2.</_></rects>
      <tilted>0</tilted></_>
    <_>
      <rects>
        <_>
          21 19 5 6 -1.</_>
        <_>
          21 22 5 3 2.</_></rects>
      <tilted>0</tilted></_>
    <_>
      <rects>
        <_>
          21 19 6 6 -1.</_>
        <_>
          21 22 6 3 2.</_></rects>
      <tilted>0</tilted></_>
    <_>
      <rects>
        <_>
          21 21 1 6 -1.</_>
        <_>
          21 23 1 2 3.</_></rects>
      <tilted>0</tilted></_>
    <_>
      <rects>
        <_>
          21 21 6 3 -1.</_>
        <_>
          23 21 2 3 3.</_></rects>
      <tilted>0</tilted></_>
    <_>
      <rects>
        <_>
          21 23 2 4 -1.</_>
        <_>
          22 23 1 4 2.</_></rects>
      <tilted>0</tilted></_>
    <_>
      <rects>
        <_>
          21 24 6 1 -1.</_>
        <_>
          23 24 2 1 3.</_></rects>
      <tilted>0</tilted></_>
    <_>
      <rects>
        <_>
          21 25 6 2 -1.</_>
        <_>
          21 26 6 1 2.</_></rects>
      <tilted>0</tilted></_>
    <_>
      <rects>
        <_>
          21 25 20 6 -1.</_>
        <_>
          21 25 10 3 2.</_>
        <_>
          31 28 10 3 2.</_></rects>
      <tilted>0</tilted></_>
    <_>
      <rects>
        <_>
          21 26 2 1 -1.</_>
        <_>
          22 26 1 1 2.</_></rects>
      <tilted>0</tilted></_>
    <_>
      <rects>
        <_>
          22 17 9 10 -1.</_>
        <_>
          25 17 3 10 3.</_></rects>
      <tilted>0</tilted></_>
    <_>
      <rects>
        <_>
          22 18 9 6 -1.</_>
        <_>
          25 18 3 6 3.</_></rects>
      <tilted>0</tilted></_>
    <_>
      <rects>
        <_>
          22 19 3 9 -1.</_>
        <_>
          22 22 3 3 3.</_></rects>
      <tilted>0</tilted></_>
    <_>
      <rects>
        <_>
          22 20 2 12 -1.</_>
        <_>
          22 24 2 4 3.</_></rects>
      <tilted>0</tilted></_>
    <_>
      <rects>
        <_>
          22 20 6 14 -1.</_>
        <_>
          22 20 3 7 2.</_>
        <_>
          25 27 3 7 2.</_></rects>
      <tilted>0</tilted></_>
    <_>
      <rects>
        <_>
          22 21 1 2 -1.</_>
        <_>
          22 22 1 1 2.</_></rects>
      <tilted>0</tilted></_>
    <_>
      <rects>
        <_>
          22 21 3 9 -1.</_>
        <_>
          22 24 3 3 3.</_></rects>
      <tilted>0</tilted></_>
    <_>
      <rects>
        <_>
          22 22 4 4 -1.</_>
        <_>
          22 22 2 2 2.</_>
        <_>
          24 24 2 2 2.</_></rects>
      <tilted>0</tilted></_>
    <_>
      <rects>
        <_>
          22 22 9 10 -1.</_>
        <_>
          25 22 3 10 3.</_></rects>
      <tilted>0</tilted></_>
    <_>
      <rects>
        <_>
          22 23 16 4 -1.</_>
        <_>
          30 23 8 4 2.</_></rects>
      <tilted>0</tilted></_>
    <_>
      <rects>
        <_>
          22 24 3 10 -1.</_>
        <_>
          22 29 3 5 2.</_></rects>
      <tilted>0</tilted></_>
    <_>
      <rects>
        <_>
          22 24 12 4 -1.</_>
        <_>
          28 24 6 4 2.</_></rects>
      <tilted>0</tilted></_>
    <_>
      <rects>
        <_>
          22 25 4 1 -1.</_>
        <_>
          24 25 2 1 2.</_></rects>
      <tilted>0</tilted></_>
    <_>
      <rects>
        <_>
          22 25 2 2 -1.</_>
        <_>
          22 26 2 1 2.</_></rects>
      <tilted>0</tilted></_>
    <_>
      <rects>
        <_>
          22 25 6 1 -1.</_>
        <_>
          24 25 2 1 3.</_></rects>
      <tilted>0</tilted></_>
    <_>
      <rects>
        <_>
          22 25 3 9 -1.</_>
        <_>
          22 28 3 3 3.</_></rects>
      <tilted>0</tilted></_>
    <_>
      <rects>
        <_>
          22 27 8 8 -1.</_>
        <_>
          22 27 4 4 2.</_>
        <_>
          26 31 4 4 2.</_></rects>
      <tilted>0</tilted></_>
    <_>
      <rects>
        <_>
          23 17 7 14 -1.</_>
        <_>
          23 24 7 7 2.</_></rects>
      <tilted>0</tilted></_>
    <_>
      <rects>
        <_>
          23 18 3 16 -1.</_>
        <_>
          23 26 3 8 2.</_></rects>
      <tilted>0</tilted></_>
    <_>
      <rects>
        <_>
          23 19 1 3 -1.</_>
        <_>
          23 20 1 1 3.</_></rects>
      <tilted>0</tilted></_>
    <_>
      <rects>
        <_>
          23 19 16 9 -1.</_>
        <_>
          23 22 16 3 3.</_></rects>
      <tilted>0</tilted></_>
    <_>
      <rects>
        <_>
          23 20 1 6 -1.</_>
        <_>
          23 22 1 2 3.</_></rects>
      <tilted>0</tilted></_>
    <_>
      <rects>
        <_>
          23 21 1 6 -1.</_>
        <_>
          23 24 1 3 2.</_></rects>
      <tilted>0</tilted></_>
    <_>
      <rects>
        <_>
          23 21 2 6 -1.</_>
        <_>
          23 24 2 3 2.</_></rects>
      <tilted>0</tilted></_>
    <_>
      <rects>
        <_>
          23 21 3 6 -1.</_>
        <_>
          23 24 3 3 2.</_></rects>
      <tilted>0</tilted></_>
    <_>
      <rects>
        <_>
          23 21 12 4 -1.</_>
        <_>
          27 21 4 4 3.</_></rects>
      <tilted>0</tilted></_>
    <_>
      <rects>
        <_>
          23 22 2 4 -1.</_>
        <_>
          23 24 2 2 2.</_></rects>
      <tilted>0</tilted></_>
    <_>
      <rects>
        <_>
          23 22 3 4 -1.</_>
        <_>
          23 24 3 2 2.</_></rects>
      <tilted>0</tilted></_>
    <_>
      <rects>
        <_>
          23 23 3 3 -1.</_>
        <_>
          24 23 1 3 3.</_></rects>
      <tilted>0</tilted></_>
    <_>
      <rects>
        <_>
          23 24 1 6 -1.</_>
        <_>
          23 27 1 3 2.</_></rects>
      <tilted>0</tilted></_>
    <_>
      <rects>
        <_>
          23 25 4 5 -1.</_>
        <_>
          25 25 2 5 2.</_></rects>
      <tilted>0</tilted></_>
    <_>
      <rects>
        <_>
          23 25 5 4 -1.</_>
        <_>
          23 27 5 2 2.</_></rects>
      <tilted>0</tilted></_>
    <_>
      <rects>
        <_>
          23 26 4 9 -1.</_>
        <_>
          23 29 4 3 3.</_></rects>
      <tilted>0</tilted></_>
    <_>
      <rects>
        <_>
          23 27 12 3 -1.</_>
        <_>
          23 28 12 1 3.</_></rects>
      <tilted>0</tilted></_>
    <_>
      <rects>
        <_>
          24 7 3 27 -1.</_>
        <_>
          24 16 3 9 3.</_></rects>
      <tilted>0</tilted></_>
    <_>
      <rects>
        <_>
          24 18 5 12 -1.</_>
        <_>
          24 24 5 6 2.</_></rects>
      <tilted>0</tilted></_>
    <_>
      <rects>
        <_>
          24 22 1 8 -1.</_>
        <_>
          24 26 1 4 2.</_></rects>
      <tilted>0</tilted></_>
    <_>
      <rects>
        <_>
          24 22 3 6 -1.</_>
        <_>
          24 24 3 2 3.</_></rects>
      <tilted>0</tilted></_>
    <_>
      <rects>
        <_>
          24 23 2 2 -1.</_>
        <_>
          25 23 1 2 2.</_></rects>
      <tilted>0</tilted></_>
    <_>
      <rects>
        <_>
          24 26 6 4 -1.</_>
        <_>
          27 26 3 4 2.</_></rects>
      <tilted>0</tilted></_>
    <_>
      <rects>
        <_>
          25 7 8 12 -1.</_>
        <_>
          25 13 8 6 2.</_></rects>
      <tilted>0</tilted></_>
    <_>
      <rects>
        <_>
          25 16 2 10 -1.</_>
        <_>
          25 16 1 5 2.</_>
        <_>
          26 21 1 5 2.</_></rects>
      <tilted>0</tilted></_>
    <_>
      <rects>
        <_>
          25 20 4 4 -1.</_>
        <_>
          25 20 2 2 2.</_>
        <_>
          27 22 2 2 2.</_></rects>
      <tilted>0</tilted></_>
    <_>
      <rects>
        <_>
          25 21 2 2 -1.</_>
        <_>
          25 21 1 1 2.</_>
        <_>
          26 22 1 1 2.</_></rects>
      <tilted>0</tilted></_>
    <_>
      <rects>
        <_>
          25 24 2 1 -1.</_>
        <_>
          26 24 1 1 2.</_></rects>
      <tilted>0</tilted></_>
    <_>
      <rects>
        <_>
          25 27 3 3 -1.</_>
        <_>
          25 28 3 1 3.</_></rects>
      <tilted>0</tilted></_>
    <_>
      <rects>
        <_>
          25 30 4 4 -1.</_>
        <_>
          25 30 2 2 2.</_>
        <_>
          27 32 2 2 2.</_></rects>
      <tilted>0</tilted></_>
    <_>
      <rects>
        <_>
          26 19 9 4 -1.</_>
        <_>
          29 19 3 4 3.</_></rects>
      <tilted>0</tilted></_>
    <_>
      <rects>
        <_>
          26 23 10 8 -1.</_>
        <_>
          26 23 5 4 2.</_>
        <_>
          31 27 5 4 2.</_></rects>
      <tilted>0</tilted></_>
    <_>
      <rects>
        <_>
          26 24 2 4 -1.</_>
        <_>
          26 24 1 2 2.</_>
        <_>
          27 26 1 2 2.</_></rects>
      <tilted>0</tilted></_>
    <_>
      <rects>
        <_>
          26 28 3 2 -1.</_>
        <_>
          27 28 1 2 3.</_></rects>
      <tilted>0</tilted></_>
    <_>
      <rects>
        <_>
          27 7 3 15 -1.</_>
        <_>
          27 12 3 5 3.</_></rects>
      <tilted>0</tilted></_>
    <_>
      <rects>
        <_>
          27 22 3 3 -1.</_>
        <_>
          28 22 1 3 3.</_></rects>
      <tilted>0</tilted></_>
    <_>
      <rects>
        <_>
          27 25 8 12 -1.</_>
        <_>
          27 25 4 6 2.</_>
        <_>
          31 31 4 6 2.</_></rects>
      <tilted>0</tilted></_>
    <_>
      <rects>
        <_>
          30 12 4 13 -1.</_>
        <_>
          32 12 2 13 2.</_></rects>
      <tilted>0</tilted></_>
    <_>
      <rects>
        <_>
          30 19 4 12 -1.</_>
        <_>
          30 19 2 6 2.</_>
        <_>
          32 25 2 6 2.</_></rects>
      <tilted>0</tilted></_>
    <_>
      <rects>
        <_>
          30 20 12 12 -1.</_>
        <_>
          34 20 4 12 3.</_></rects>
      <tilted>0</tilted></_>
    <_>
      <rects>
        <_>
          30 23 12 6 -1.</_>
        <_>
          34 23 4 6 3.</_></rects>
      <tilted>0</tilted></_>
    <_>
      <rects>
        <_>
          30 25 2 3 -1.</_>
        <_>
          31 25 1 3 2.</_></rects>
      <tilted>0</tilted></_>
    <_>
      <rects>
        <_>
          30 26 2 2 -1.</_>
        <_>
          31 26 1 2 2.</_></rects>
      <tilted>0</tilted></_>
    <_>
      <rects>
        <_>
          30 26 4 3 -1.</_>
        <_>
          32 26 2 3 2.</_></rects>
      <tilted>0</tilted></_>
    <_>
      <rects>
        <_>
          31 21 12 9 -1.</_>
        <_>
          35 21 4 9 3.</_></rects>
      <tilted>0</tilted></_>
    <_>
      <rects>
        <_>
          31 23 10 11 -1.</_>
        <_>
          36 23 5 11 2.</_></rects>
      <tilted>0</tilted></_>
    <_>
      <rects>
        <_>
          45 43 2 5 -1.</_>
        <_>
          46 43 1 5 2.</_></rects>
      <tilted>0</tilted></_>
    <_>
      <rects>
        <_>
          45 47 2 1 -1.</_>
        <_>
          46 47 1 1 2.</_></rects>
      <tilted>0</tilted></_></features></cascade>
</opencv_storage>
